man -0.29784 -0.13255 -0.14505 -0.22752 -0.027429 0.11005 -0.039245 -0.0089607 -0.18866 -1.1213 0.34793 -0.30056 -0.50103 -0.031383 -0.032185 0.018318 -0.090429 -0.14427 -0.14306 -0.057477 -0.020931 0.56276 -0.018557 0.15168 -0.25586 -0.081564 0.2803 -0.10585 -0.16777 0.21814 -0.11845 0.56475 -0.12645 -0.062461 -0.68043 0.10507 0.24793 -0.20249 -0.30726 0.42815 0.38378 -0.19371 -0.075951 -0.058287 -0.067195 0.2192 0.56116 -0.28156 -0.13705 0.45754 -0.14671 -0.18562 -0.074146 0.60737 0.07952 0.41023 0.18377 -0.08532 0.43795 -0.34727 0.2077 0.50454 0.40244 0.1095 -0.48078 -0.22372 -0.54619 -0.20782 0.13751 -0.16206 -0.24835 0.17124 0.037355 0.14547 -0.056205 0.2644 -0.38029 0.0029947 0.051608 0.21807 -0.071087 0.31543 0.24593 0.34444 -0.36354 -0.12137 -0.013511 0.049564 0.031386 0.10316 -0.44301 0.11663 -0.055576 -0.091434 -0.070799 -0.017031 0.046024 0.096063 0.10148 -0.33467 -0.043516 0.38271 0.018411 0.0049479 0.35587 0.40432 0.4823 0.12416 -0.051926 -0.081769 -0.21542 0.71766 -0.0052553 -0.55428 0.68033 0.20255 -0.19927 -0.11563 0.0030103 -0.74399 -0.21086 0.069584 -0.20315 -0.17027 -0.11292 -0.044594 -0.2145 0.26097 0.36969 -0.65155 0.048649 0.044304 -0.26604 0.23976 -0.38281 -0.02353 -0.020519 -0.52202 -0.30595 0.088525 0.28395 0.15056 0.23202 0.30538 -0.53674 0.21362 0.10999 0.4685 -0.60017 -0.13141 0.18707 0.11636 0.24703 0.17168 0.40658 -0.19039 0.033278 -0.26374 0.28722 0.27659 0.30153 -0.12622 0.5225 0.13887 -0.15012 -0.0038264 -0.074287 0.46348 0.26215 -0.62671 0.21841 -0.26531 -0.75294 -0.36826 0.072989 -0.071807 0.10612 -0.087064 -0.053871 0.22379 0.38538 0.053972 0.21208 0.39662 -0.38609 -0.53 -0.34169 0.067624 0.11835 0.60372 0.21744 -0.12806 0.13802 0.22463 -0.21566 -0.25167 -0.44859 -0.39111 -0.5259 0.21266 1.9729 0.13851 0.32966 0.047626 -0.37787 -0.31769 -0.1283 0.34396 -0.11061 -0.23346 -0.45134 0.1605 -0.32801 0.033373 0.42571 0.42283 -0.16932 0.14068 0.14087 0.20856 -0.24912 0.38337 0.43722 -0.090575 0.021208 -0.22334 -0.42596 -0.47252 -0.1995 0.32459 0.39765 -0.091573 -0.073528 -0.20074 0.22083 0.011314 0.11977 -0.14888 -0.27152 0.28908 0.20407 0.098377 -0.1424 -0.059699 0.032529 -0.1877 0.24643 -0.1128 0.14666 0.076001 0.31109 -0.22119 0.033051 0.066731 1.5449 -0.11096 0.26438 0.1791 0.039628 -0.46497 0.40052 -0.057004 0.11391 0.42397 -0.57411 0.17205 0.44401 -0.030134 -0.22061 0.47222 -0.12734 -0.12288 0.33832 0.41698 0.18355 0.093473 -1.9373 0.053236 -0.10361 0.056681 -0.12726 -0.11681 0.55039 0.33644 0.27706 0.71184 -0.1304 0.26108 -0.2481 0.0032735 -0.16505 0.11827 -0.26322 -0.10169 0.24275 0.16927 -0.15809 0.27613 -0.2832 0.50554
woman -0.51821 -0.13809 -0.41185 -0.13133 0.0035659 -0.31205 -0.31242 -0.43538 -0.27017 -1.1338 0.19282 -0.23786 0.0028892 -0.027078 0.14747 -0.051265 0.089021 -0.12337 -0.40892 -0.39197 -0.5665 0.40684 -0.057313 0.18613 -0.33095 -0.25243 0.33452 -0.23104 -0.0099149 0.24269 -0.57504 0.30122 -0.33779 -0.294 -0.80202 0.44674 -0.40296 -0.21026 0.1072 0.53937 0.63971 -0.3154 -0.082537 -0.038314 -0.058821 0.11235 0.50928 0.14656 -0.18988 0.24132 -0.038442 0.071418 0.38471 0.10584 -0.52786 -0.057574 0.13771 -0.48613 0.62553 -0.3308 -0.065539 0.1791 0.62746 0.087208 -0.60422 -0.64595 -0.2389 -0.1585 -0.07948 -0.037848 -0.205 -0.44504 -0.21127 -0.0026664 -0.0080152 0.39607 0.069091 -0.34379 -0.13992 0.084029 -0.40245 0.094426 0.28908 0.6216 -0.4132 -0.12153 -0.40676 -0.05771 0.17415 0.094069 -0.65955 -0.34154 -0.079291 0.16867 0.31665 -0.072868 -0.44181 -0.19555 0.16942 -0.197 0.17484 0.11972 0.012957 -0.32238 0.33737 0.35553 0.82906 -0.37521 0.34777 -0.13105 -0.046688 1.2125 0.025435 -0.36021 0.65259 0.63729 0.23457 0.19874 0.22589 -0.016769 0.10671 0.86805 -0.02853 -0.011634 -0.39911 0.12429 -0.066363 0.0080237 0.41826 -0.60603 0.26269 0.035625 -0.10225 0.44362 -0.38952 -0.054241 -0.31542 -0.076452 -0.33072 0.42178 0.29242 0.13222 -0.14896 0.32047 -0.4735 -0.1093 0.31163 0.49836 -0.20143 0.36058 0.32242 -0.11148 0.6416 0.20955 0.035183 0.16684 -0.41427 -0.41894 0.18777 0.39424 0.25784 0.18818 0.60567 0.15537 -0.27121 0.054047 -0.18342 0.29789 0.35805 -0.40148 -0.019914 -0.019742 -0.56609 -0.25878 -0.036075 0.0093725 -0.25284 -0.061715 -0.26441 0.47597 0.087956 0.051997 0.21366 -0.0034455 0.1739 -0.16853 -0.22233 -0.1006 -0.032696 -0.008549 0.036532 -0.19339 -0.28571 -0.29294 -0.53655 0.16387 -0.36861 -0.52443 -0.84287 0.26247 1.8261 0.029467 0.19155 0.28406 -0.1017 -0.31416 -0.084328 0.42934 0.32851 0.41274 -0.080323 0.063666 -0.18441 0.13328 0.46 -0.24984 0.12574 -0.49056 -0.072603 0.28191 -0.25738 0.40629 0.38381 -0.37685 -0.16371 0.30354 -0.38234 -0.61633 -0.22076 0.38153 0.54091 -0.32349 -0.032075 -0.051326 -0.12465 0.19237 -0.077144 0.27005 -0.20103 -0.26512 0.35769 -0.23437 0.054273 0.16901 -0.15758 0.42714 0.23167 -0.021318 0.3086 0.44873 -0.12432 -0.15715 -0.099448 -0.24825 1.156 -0.38925 -0.0063171 0.48928 0.46089 -0.17058 0.06118 -0.54 -0.054482 0.13329 -0.47944 0.17119 0.26289 0.14383 -0.30443 0.27534 -0.14711 -0.52172 0.32909 -0.15149 0.1539 0.24171 -1.6971 0.027579 -0.0073776 0.30144 0.011751 0.012419 0.38711 -0.044167 -0.62495 0.74536 0.043054 0.62925 -0.33381 -0.048651 0.09395 -0.20336 -0.055232 0.096572 0.09321 -0.17298 -0.20794 0.37342 -0.030166 0.73014
queen -0.22184 0.064884 -0.086365 0.51279 0.32543 -0.12934 0.08316 0.091629 -0.30858 -0.94149 -0.088608 -0.10847 0.21129 0.70052 0.26751 -0.040477 0.17364 -0.30757 -0.05212 -0.17512 -0.8409 0.19205 -0.13806 0.3852 0.27247 -0.17401 -0.46626 -0.024944 0.0965 0.30107 0.1802 -0.068892 -0.20452 0.35746 -0.28313 0.28063 -0.011503 0.10674 -0.24369 -0.17907 -0.13202 -0.17021 -0.59409 0.95749 0.20384 -0.042887 0.60685 -0.068825 0.52273 -0.54755 -0.54525 0.43453 0.44516 -0.025659 -0.11531 -0.18587 0.3608 -0.25104 0.72084 -0.05824 0.344 0.47188 0.20461 0.69993 0.48738 -0.90267 -0.10382 0.12704 -0.41078 0.40384 0.09641 0.33173 0.070018 -0.19735 0.15903 0.097236 0.5579 -0.54857 0.091887 0.23397 0.39486 -0.10993 0.10648 -0.25844 0.55624 -0.5397 0.1016 -0.033093 0.10949 -0.44593 0.22759 -0.42394 0.079741 -0.43659 -0.203 -0.42155 0.52501 -0.13325 -0.047647 -0.55514 0.27313 -0.36058 0.39217 0.063712 0.19537 0.42702 0.059883 0.10991 0.049734 0.28878 0.28826 0.68495 0.41031 -0.25327 0.059437 -0.1761 0.085954 0.16996 -0.0834 -0.57049 -0.71907 0.70347 -0.37878 -0.47651 -0.097319 0.14046 -0.018743 -0.14805 0.48686 0.44781 0.5739 0.5402 -0.13905 -0.14129 0.19411 -0.0087851 -0.23293 0.051349 -0.42881 0.58398 0.20918 0.75124 -0.66115 -0.15127 0.2017 -0.5402 0.41303 0.36115 -0.38199 -0.38997 0.15415 -0.21134 -0.56198 0.5193 0.2243 0.5539 0.057824 -0.43428 0.087064 -0.55141 0.58216 0.82845 0.50565 0.14649 -0.36045 0.8249 -0.25254 0.66615 0.32949 0.38154 -0.51031 0.90783 -0.067226 -0.62108 -0.22863 0.30936 -0.21678 -0.08686 -0.27449 0.21552 -0.17032 0.36406 0.39852 -0.16566 0.43411 -0.40548 -0.19907 0.53835 -0.32752 -0.76328 -0.42558 -0.10101 -0.34878 -0.7156 -0.053603 0.5162 0.053542 -0.51026 -0.18184 -0.36726 1.8552 -0.56669 -0.29214 0.27065 0.51873 -0.62641 0.43802 0.042792 0.32292 -0.19796 -0.15116 -0.12337 0.16066 -0.27202 -0.12558 -0.20355 -0.013273 -0.90037 -0.036197 -0.44949 0.050578 -0.22396 0.28727 0.44153 -0.80729 0.10861 -0.00080332 0.064491 0.011235 0.53375 -0.5854 0.34119 -0.068075 0.10167 0.040207 0.33076 0.1061 0.3818 -0.032353 0.065516 -0.32452 0.5815 0.478 0.26177 -0.22771 0.45153 -0.42122 -0.5973 0.28305 0.47875 -0.19059 0.15642 0.22882 -0.317 0.60575 -0.43283 0.33706 -0.17907 0.50241 -0.77599 0.083968 -0.60968 0.095526 0.72448 -0.17796 0.056241 -0.29491 -0.69536 0.49126 0.051395 0.51029 -0.42161 0.42673 -0.28271 0.010129 0.17145 -0.92244 -0.31237 0.24198 -0.2307 0.16144 0.36125 -0.14644 -0.2054 -0.86869 0.2282 -0.2915 0.50015 -0.15411 -0.33083 0.69766 -0.2874 -0.50032 0.11975 -0.17529 -0.31923 0.19985 0.2523 0.1734 0.63594
king 0.0033901 -0.34614 0.28144 0.48382 0.59469 0.012965 0.53982 0.48233 0.21463 -1.0249 -0.34788 -0.79001 -0.15084 0.61374 0.042811 0.19323 0.25462 0.32528 0.05698 0.063253 -0.49439 0.47337 -0.16761 0.045594 0.30451 -0.35416 -0.34583 -0.20118 0.25511 0.091111 0.014651 -0.017541 -0.23854 0.48215 -0.9145 -0.36235 0.34736 0.028639 -0.027065 -0.036481 -0.067391 -0.23452 -0.13772 0.33951 0.13415 -0.1342 0.47856 -0.1842 0.10705 -0.45834 -0.36085 -0.22595 0.32881 -0.13643 0.23128 0.34269 0.42344 0.47057 0.479 0.074639 0.3344 0.10714 -0.13289 0.58734 0.38616 -0.52238 -0.22028 -0.072322 0.32269 0.44226 -0.037382 0.18324 0.058082 0.26938 0.36202 0.13983 0.016815 -0.34426 0.4827 0.2108 0.75618 -0.13092 -0.025741 0.43391 0.33893 -0.16438 0.26817 0.68774 0.311 -0.2509 0.0027749 -0.39809 -0.43399 0.049531 -0.42686 -0.094679 0.56925 0.28742 -0.015721 -0.059162 0.1912 -0.59814 0.65486 -0.31363 0.16881 0.10862 0.075316 0.34093 -0.14706 0.8359 0.39697 0.52358 -0.0096367 -0.14406 0.37783 -0.596 -0.063192 -0.85297 -0.3098 -1.0587 -1.025 0.4508 -0.73324 -1.2461 -0.028488 0.20299 0.00259 0.31995 0.35744 0.28533 0.228 0.50956 -0.35942 0.32683 0.046264 -0.86896 -0.2707 -0.15454 -0.32152 0.31121 0.44134 0.85189 0.21065 -0.13741 -0.15359 -0.059722 0.027375 0.23724 -0.39197 -0.66065 0.23587 0.032384 -0.64043 0.55004 0.29597 0.14989 0.46079 -0.26561 -0.1607 -0.36328 1.0782 0.31375 0.1149 0.20248 0.032748 0.41082 -0.082536 0.36606 0.18771 0.75415 0.079648 0.24181 -0.60319 -0.37296 -0.047767 0.45008 -0.21135 0.022251 -0.084325 0.18644 -0.14682 0.56571 -0.30995 0.17423 -0.41122 -0.84772 -0.71114 0.69895 -0.13008 -0.34195 -0.30501 -0.12646 0.29957 -0.43488 0.31935 0.2817 -0.20631 -0.48877 0.34477 0.03907 1.6198 -0.6352 -0.0037675 -0.41271 0.30704 -0.50486 0.036385 -0.046386 -0.12004 0.010029 -0.49116 0.041486 0.002979 -0.57694 -0.42088 -0.063218 0.0034244 -0.25093 -0.39689 -0.36984 0.32689 0.01385 0.23634 -0.055199 -0.58453 0.13211 0.50943 0.25198 -0.0088309 -0.21273 -0.48423 0.5234 -0.32832 -0.013821 0.15812 0.46696 0.036822 -0.090878 0.18854 0.20794 -0.42682 0.59705 0.53109 0.19185 -0.16392 0.064956 -0.36009 -0.59882 -0.28134 0.1017 0.02601 0.44298 -0.31922 -0.22432 0.7828 0.041307 0.1742 0.27777 0.43792 -0.84324 0.27012 -0.21547 0.52408 -0.19426 -0.21878 -0.20713 0.092994 -0.15804 0.28716 -0.11911 -0.20688 -0.36482 0.68548 -0.10394 -0.49974 -0.47038 -1.2953 -0.46236 0.44467 0.13337 0.88762 -0.26494 0.080676 -0.20625 -0.51232 0.31112 0.062035 0.30302 -0.33344 -0.20924 -0.17348 -0.43434 -0.45743 -0.077803 -0.33248 -0.078633 0.82182 0.082088 -0.68795 0.30266
prince -0.40534 -0.59846 0.53856 0.12507 -0.053322 0.24612 0.34547 -0.038979 0.24306 -0.84187 0.1327 -0.16442 -0.67195 0.81185 -0.29268 -0.088923 -0.078844 -0.045553 0.22916 0.23223 -0.30138 0.76591 -0.023928 0.046222 0.73063 -0.25006 -0.11801 -0.02578 0.31684 -0.1452 0.46551 0.12156 0.43334 0.85349 -0.34577 -0.13512 0.55731 0.29895 0.14529 0.35847 -0.18305 0.13861 0.068563 -0.092263 -0.072333 0.17219 0.43816 -0.011097 -0.20185 -0.53575 -0.19944 0.18308 0.2825 -0.39987 0.32422 0.34139 0.77425 0.46701 0.45611 0.0004966 0.2825 0.070606 0.792 0.2655 0.55957 -0.39435 -0.12148 -0.44459 -0.17003 0.35415 -0.2174 0.030179 0.35888 -0.3592 -0.45815 -0.53506 0.36686 -0.1356 0.10572 0.14278 0.59196 0.21494 0.17799 0.34218 0.041179 -0.087735 0.11138 -0.14046 0.069912 -0.31271 0.031218 -0.23966 -0.0061995 0.56024 -0.66149 -0.28673 0.8125 0.012403 0.14891 -0.15497 0.00693 -0.28249 0.80295 -0.08277 0.5986 0.15213 -0.1549 -0.17742 -0.06644 0.35474 0.36687 0.035712 0.11046 -0.10024 0.34931 0.051545 -0.032462 -0.14335 0.10767 -0.4128 -0.088679 0.61105 -0.24188 -0.80139 -0.43021 -0.061883 -0.49723 0.46394 0.54442 0.18604 0.32523 0.20748 -0.10707 0.058211 0.18721 -0.30976 -0.30585 -0.45765 -0.17713 -0.37138 0.65071 0.57027 -0.051612 -0.075142 0.3599 -0.34164 0.22579 0.24779 -0.4158 -0.23139 0.77623 -0.46599 -0.85196 0.53978 0.016079 0.15936 0.92243 -0.57119 0.098882 -0.071096 0.65814 0.25785 0.056613 -0.41414 -0.14735 -0.14394 0.026147 0.38498 0.3144 0.85823 -0.11258 0.011623 -0.48297 -0.69894 -0.2273 -0.060368 0.86703 -0.038417 -0.50369 0.70116 -0.32529 0.2922 -0.52117 0.80481 -0.047476 -0.24568 -0.52297 0.42335 -0.4762 -0.11714 -0.24927 -0.6628 0.16581 -0.24494 0.031694 0.23816 0.30137 -0.15556 0.0073388 -0.047939 1.4558 -0.3847 -0.090096 -0.41773 0.10907 -0.38287 0.26555 -0.24495 0.14922 -0.34106 -0.37779 -0.07767 0.61309 0.090327 -0.078402 -0.25 0.14916 -0.29882 -0.33865 0.016034 0.62965 0.0069239 0.46432 0.13941 -0.19492 -0.12097 0.43629 -0.63836 -0.3017 0.047418 -0.31839 0.20775 -0.39399 0.20943 0.81688 0.66903 -0.51122 -0.13056 0.030748 0.071473 -0.012506 -0.31059 0.76305 0.62316 0.53504 -0.27262 -0.015314 -0.036398 -0.34681 -0.14652 0.47356 0.24 0.20119 -0.097784 1.2771 0.074156 0.044205 0.24352 0.59519 -0.89923 0.1984 -0.080108 -0.47688 -0.0071294 -0.40309 -0.6518 -0.40275 -0.61182 0.087522 -0.44505 0.28331 -0.33045 -0.355 -0.98684 -0.64718 -0.6614 -1.2283 -0.94648 0.20836 -0.58705 0.7102 0.43814 -0.055489 -0.25758 -0.33542 0.54795 0.33942 0.089603 -0.22468 0.02035 -0.16142 -0.16989 -0.016646 -0.12818 0.18906 -0.22688 0.7059 0.26539 -0.20194 0.3087
princess -0.58939 -0.42231 0.029687 0.10079 0.048287 -0.30097 0.037618 -0.055842 -0.20813 -0.71222 -0.12849 -0.1834 -0.34077 0.89088 -0.5843 -0.46888 0.16712 -0.43152 0.0050873 0.16901 -0.66582 0.23603 -0.068808 -0.020093 0.94404 0.15844 -0.34799 -0.2413 0.30767 0.21553 0.084323 0.15535 0.42101 0.41435 -0.39689 0.32291 0.48152 0.32099 0.26512 0.34014 -0.22292 -0.27159 0.2761 0.15077 0.062696 -0.15536 0.74972 -0.00082581 0.010932 -0.4041 -0.32862 0.20507 0.47222 -0.27673 -0.38304 0.2605 0.49114 0.19076 0.79011 -0.36915 0.20216 0.056721 0.78274 0.40086 0.72748 -0.33473 -0.1209 -0.31356 -0.36554 0.4967 -0.27993 0.014028 0.71678 -0.51212 -0.19526 -0.088187 0.72454 -1.0156 -0.29244 0.047214 0.14462 0.20838 0.098229 0.35611 0.079558 0.27742 0.29394 0.13439 0.25127 -0.33071 -0.29508 -0.59336 0.018678 0.079444 -0.13631 -0.059397 0.27133 0.1248 0.019127 -0.24261 0.28948 0.052111 0.59759 -0.0407 0.62677 0.34687 0.41148 -0.028621 -0.065937 0.19833 0.78807 0.76148 0.81789 -0.12625 0.29289 -0.51344 -0.012003 0.37457 0.40674 0.14301 -0.25344 0.64055 -0.1579 -0.31434 -0.30385 -0.12404 -0.80724 0.39523 0.54457 -0.37599 0.81642 0.77146 0.018273 0.41139 0.014538 0.088999 -0.37012 -0.1252 -0.44315 -0.099997 0.70078 0.56824 -0.70107 0.08529 0.55731 -0.67447 -0.052448 0.45715 0.029884 0.026066 0.38738 -0.25059 -0.47716 0.4322 -0.23157 0.18457 0.36406 -0.41913 0.068173 -0.028554 0.65551 0.24323 0.18344 -0.073343 -0.12286 0.11235 -0.28566 0.31651 -0.24657 0.47407 -0.3967 0.75313 -0.15787 -0.015359 -0.77836 -0.37457 0.21672 -0.073984 0.18662 0.60014 -0.0036245 0.083299 0.091081 0.24765 0.39109 0.23096 -0.27511 0.0047035 0.13786 -0.68674 -0.27174 -0.55823 -0.46011 -0.22065 -0.58629 0.31259 -0.081804 -0.27551 -0.11653 -0.30778 1.6219 0.018803 -0.04396 0.67965 0.7148 -0.26161 0.00076277 0.26553 0.2419 -0.55241 -0.36685 0.5878 0.50707 0.023715 0.26374 -0.55059 0.33783 -0.89101 -0.29182 -0.11495 0.45225 0.081374 0.76013 0.080745 -0.51186 0.21855 0.16333 -0.46385 0.16622 -0.072838 -0.41118 -0.13749 -0.15775 0.21835 0.39084 0.4015 -0.02618 0.58892 -0.18685 -0.43796 -0.1404 -0.6151 0.72082 0.61676 -0.025553 0.20506 0.11905 -0.49046 0.11694 0.89228 -0.43876 0.29515 -0.062033 0.30692 0.36243 -0.60485 0.050546 -0.16499 0.73674 -0.96157 -0.38165 -0.12144 -0.56247 0.053221 0.0054003 -0.043525 -0.1968 -0.69382 0.57017 -0.29912 0.48296 -0.85968 0.051471 -0.57761 -0.20712 -0.38944 -0.87386 -0.6691 0.19569 -0.64746 0.54045 0.94842 -0.028179 -0.64527 -0.89874 -0.18629 0.35005 0.079865 -0.011071 -0.089408 0.58581 0.16045 -0.55727 -0.22179 -0.12375 -0.15395 0.78622 0.4111 0.57612 0.54881
